-0.112885,
0.395142,0.24913,0.319702,0.18486,0.235001,0.268631,0.180542,0.135361,0.198776,0.248657,-0.0417938,-0.0838318,0.0208282,0.0219574,-0.00735474,0.0121613,-0.0597229,0.118835,0.00982666,0.135315,0.137207,-0.0380249,0.0474854,0.0386047,-0.035675,0.127884,-0.0128021,-0.00486755,-0.0178986,0.162949,0.0542603,0.0174866,0.0141144,0.00578308,0.140976,0.0098114,0.0468903,-0.0467529,0.134247,0.0183411,0.0144806,0.0157318,0.0126343,0.158813,0.0411987,-0.0126801,-0.00717163,0.00982666,-0.0597839,0.0389404,-0.0305481,0.0309601,0.0462494,-0.0434723,-0.0732422,-0.00450134,0.00752258,0.0213318,-0.0288086,-0.0469208,-0.00274658,-0.0209808,0.0232544,0.0176086,0.0735321,0.0275116,-0.047348,-0.0436401,-0.100998,0.0146942,0.00720215,0.105743,0.0256805,0.0396729,0.118561,-0.0463562,0.0494843,0.0284271,-0.00798035,0.0290833,-0.0266571,-0.0153503,-0.0270386,0.0303345,0.0463104,0.203445,0.0293427,0.0288849,-0.0318756,0.023056,-0.0847473,-0.0472717,-0.0299225,-0.0441132,0.0800629,0.0553436,0.100372,0.0614624,0.0281372,0.0253448,-0.0214844,-0.0417786,-0.010498,0.0139008,0.0951691,-0.0640564,0.0662994,0.0478821,-0.0382538,-0.0606079,0.0165405,-0.0448761,-0.044693,0.0246277,0.00160217,-0.0124054,-0.00967407,-0.0448914,-0.000106812,0.0985565,-0.0214844,-0.01297,-0.0408325,0.00175476,0.0420532,-0.0362091,-0.0296326,-0.0195313,0.0662079,0.000732422,-0.0693359,0.0515289,-0.0700226,-0.0561371,-0.0980225,-0.00485229,0.0102081,-0.0318451,-0.0508118,0.0572815,-0.014679,-0.0285645,-0.0222015,0.0310974,0.0447388,0.0380554,0.01474,-0.0113983,0.00592041,-0.026001,0.0952301,-0.0444641,0.0496674,-0.100281,0.0339966,0.0146027,-0.00250244,-0.158325,0.0297241,-0.0577393,0.0579834,0.152039,0.0289307,-0.0140686,0.113708,0.0833893,0.113571,-0.0107117,-0.000488281,-0.00450134,0.00544739,-0.00570679,0.0134583,-0.0329895,0.0353546,-0.0207825,-0.0364838,0.0125885,-0.0115356,-0.0404358,0.0281067,0.0260162,-0.00244141,0.0308685,0.0106659,0.0244598,0.0500641,-0.0622559,0.0785217,-0.0108185,-0.00794983,-0.0161285,-0.00448608,-0.00462341,0.0799713,-0.00120544,0.0318756,0.00442505,0.0640564,0.0458221,-0.0406342,0.0267487,-0.00691223,0.153763,0.00822449,0.0415344,0.000274658,0.0131531,0.0342407,0.0166473,0.05336,-0.00947571,-0.00662231,0.0126648,0.00778198,-0.0539246,-0.0396423,0.0218811,0.0209198,-0.0052948,0.0291443,0.0303802,0.00253296,0.015976,0.0381927,0.0361328,0.0110779,0.0130768,-0.0212097,-0.0278473,-0.00752258,0.0105286,0.00865173,-0.014679,-0.00346375,-0.0353088,0.0193634,-0.0122833,0.00172424,-0.0414276,0.00360107,0.0495605,0.0836334,-0.00820923,0.0213928,0.00401306,0.0325775,0.0475922,-0.00823975,-0.0667877,-0.0490112,0.0536041,0.028595,-0.0145569,0.0275116,-0.031662,-0.00720215,-0.0166168,0.0897827,0.000228882,-0.0314636,0.0243225,0.231339,-0.00645447,0.77626,0.0286407,0.0424042,0.015564,0.168884,0.0314026,-0.0537109,0.0405273,0.0106659,-0.0586548,-0.0128326,0.0108185,-0.0152283,0.021225,0.00675964,0.0201263,-0.0156708,-0.0610199,-0.0518036,0.0659485,-0.0164032,0.044342,0.0115051,-0.0735931,0.0183716,-0.0127411,0.0433502,0.0142212,-0.00668335,-0.0354919,0.0280609,0.192703,0.0193634,-0.0121155,0.0999756,-0.180206,-0.077774,0.191757,0.0190887,0.100174,0.154099,0.0729523,0.0153046,0.0983582,-0.218689,-0.00730896,-0.0518341,-0.134644,-0.15007,-0.0439148,-0.0274963,-0.0506897,-0.0517731,0.117401,0.0240479,0.0345612,0.000686646,-0.00776672,0.179962,-0.0124207,0.0178986,0.0721283,-0.0482635,0.0681,0.0124664,-0.0482941,-0.0394287,-0.0314789,-0.035553,0.0888977,0.251938,-0.0608368,-0.00891113,0.032074,0.0308685,-0.0197449,-0.00906372,0.0140839,0.0617981,0.0267181,0.0142059,0.00593567,0.0569763,-0.0255585,0.0200195,-0.0181885,0.0119781,0.0641022,-0.0138397,-0.0382233,0.00526428,0.00604248,0.0070343,-0.00270081,-0.0301208,0.0455322,0.0284729,-0.113281,0.028656,-0.0445557,0.00712585,-0.0198212,0.00495911,-0.023056,-0.0199738,0.027298,0.0153198,-0.00442505,-0.0167236,0.0403442,-0.0520172,-0.0121765,-0.0108948,0.0748291,-0.0496521,-0.102295,-0.0253601,-0.0128784,-0.0305328,0.0315399,-0.0414734,-0.027771,-0.000335693,-0.0619049,0.00476074,0.00848389,-0.0335541,0.0512695,0.0183411,-0.0230408,0.0114136,0.0270996,-0.018158,-0.0202026,-0.0425262,0.00799561,-0.0933075,0.0643311,0.0262146,0.0286865,-0.00180054,0.0106964,-0.00428772,-0.0727081,-0.00578308,-0.00299072,-0.0159454,-0.0698395,0.0143433,0.0571594,-0.0467834,-0.0418854,0.0319519,-0.051712,0.0150146,-0.0402527,-0.0646362,0.0778046,0.0535278,-0.0108032,-0.00320435,0.0396576,-0.0142212,-0.0137482,0.0474701,0.0206604,-0.0242767,0.0578613,0.0106354,0.0543518,0.0508118,-0.000259399,0.0339661,-0.0171509,0.054657,-0.0500031,0.076004,-0.0299225,-0.0463715,0.0326996,-0.00648499,0.00502014,-0.0187073,-0.056076,-0.0580444,-0.00978088,0.0135956,-0.038208,0.0516663,0.0861664,0.054184,0.0781708,0.0661316,0.0230865,-0.0894012,0.137207,-0.0480652,0.0729675,-0.01828,0.0191193,0.0319061,-0.000152588,0.101852,0.0196075,-0.0317535,-0.0595703,0.0141754,0.0549011,0.0165253,0.0610504,0.0393829,0.0187988,-0.00506592,-0.0354156,-0.0141449,-0.0196381,0.0342712,-0.0295105,0.00186157,-0.0600739,0.0270996,-0.0557098,-0.0124054,-0.0201111,0.0269623,0.0374146,0.0407562,-0.00265503,0.0787201,0.0485077,-0.0213623,-0.00610352,-0.00350952,0.0441132,0.0216522,0.0704193,0.0628052,0.00862122,0.0120697,-0.0941162,-0.00709534,-0.0499725,-0.0543976,-0.0749512,-0.0012207,-0.0396881,0.0664825,-0.0140228,-0.0156403,0.132843,0.165787,-1.52588e-05,-0.0176239,-0.00440979,-0.0283508,0.0370789,-0.00642395,0.0110474,4.57764e-05,-0.0309601,0.0231171,0.0408173,0.0234375,0.0111542,-0.0052948,0.0100098,-0.0305634,-0.0172119,0.0453339,-0.00724792,-0.0534821,0.0102997,0.0645447,0.104965,0.0197449,-0.0151215,-0.00106812,0.0654297,0.0609283,0.0490417,0.0429993,0.00195313,0.0497437,-0.0276184,-0.0252533,0.0218964,-0.0254517,0.0348511,0.0227051,-0.00564575,0.00535583,0.0017395,0.0625916,-0.0216827,0.0114288,0.00675964,0.089325,0.0341339,0.00834656,0.0677338,-0.0512238,0.0353394,0.0310822,-0.0191498,-0.0704803,0.0227203,-0.0653839,0.0338745,0.00544739,-0.0353394,0.0294647,-0.0321198,-0.0584564,-0.0166016,-0.00726318,0.0313721,-0.00965881,0.00520325,-0.0413818,-0.0496216,-0.0422058,0.0183258,0.0153961,-0.0325012,0.00462341,-0.0648956,-0.00306702,-0.000366211,-0.173615,-0.163162,0.0195923,-0.0187836,-0.0135193,0.00506592,-0.0449066,-0.0941772,-0.0247955,0.041275,0.000793457,0.0602264,0.0093689,-0.0164032,0.0191956,0.0294495,-0.0277863,-0.0306091,-0.00276184,-0.0305634,0.0229492,0.0435333,0.0315704,0.0399933,-0.0180206,-0.00146484,-0.0100861,0.0155792,-0.0566406,0.0263062,0.0772705,-0.0240326,-0.0567627,-0.0206146,-0.0341187,-0.0752411,-0.0257874,-0.0399628,-0.0554504,-0.0383759,-0.016098,-0.0161896,0.00050354,0.151947,0.00495911,0.00700378,0.0629425,-0.0543671,-0.0375214,0.0068512,0.00062561,0.0055542,-0.0767822,0.0600586,-0.0891571,0.0236511,0.0203705,0.0454254,-0.0316162,-0.0623474,-0.00720215,-0.0162506,-0.0202026,0.0192566,-0.000930786,-0.0346985,0.0520325,0.0525513,-0.0126038,-0.00665283,0.0264587,-0.0261688,-0.0486908,-0.0020752,0.134048,-0.0886078,-0.0712738,0.0139465,0.000244141,0.0136108,0.0375977,-0.0242462,0.0163574,0.0490723,0.0218353,0.0340118,-0.0341644,-0.0408325,0.00602722,-0.0525208,0.0710144,0.0462494,0.0287323,0.0741882,0.0189667,-0.0265808,-0.0333252,-0.0360565,-0.0708771,0.0243378,-0.00364685,0.00267029,0.00791931,-0.06073,0.118469,0.0402985,-0.00392151,0.0475616,0.0461731,0.0447235,0.0911407,-0.0199585,0.024292,-0.112976,-0.00939941,0.0229645,-0.00569153,-0.0331116,0.0205841,-0.0542603,-0.0878296,0.0657349,0.0218964,0.209778,-0.079422,-0.0191193,0.0191956,-0.0496063,-0.00718689,-0.0169678,0.0133057,0.0527496,-0.0932465,0.0157013,-0.0275116,-0.0299988,-0.00285339,-0.0701752,0.0883942,0.0330811,0.0245209,0.00189209,0.0314026,-0.0762939,0.0153809,0.00637817,0.0163727,0.0598755,0.0105286,0.0247345,0.0207367,0.0101776,0.0366211,0.00691223,0.0199585,0.0489044,0.0433807,0.0419464,-0.0284424,0.0433044,0.0122833,-0.0921478,0.0682678,-0.0214081,-0.0224457,-0.00663757,0.0837708,0.0127106,-0.155258,-0.00372314,-0.0200806,-0.0155334,0.0174408,-0.0171051,-0.129074,0.0621185,-0.0043335,-0.03125,-0.0211182,0.00727844,-0.0510712,0.0767822,-0.102219,-0.00216675,0.0329895,-0.0408783,0.0244141,0.019928,0.026947,0.0606079,-0.0136108,0.0193787,-0.0284271,-0.0166321,0.0512848,0.0413666,0.0366058,-0.0141144,-0.0238647,0.0353699,-0.00341797,0.0510864,-0.0461884,0.00918579,-0.00489807,-0.0329437,0.0141449,-0.0189667,0.0153656,0.000457764,0.00912476,0.00393677,-0.000778198,-0.00531006,0.0240631,-0.0407104,-0.0190887,-0.0680084,0.0101471,0.00311279,0.0674744,-0.117676,-0.0176697,0.00109863,-0.045166,0.0378571,0.03302,-0.036377,0.0340424,-0.00241089,0.0118713,0.0188751,0.00596619,0.0858002,-0.0108337,0.0592346,0.0576477,-0.00268555,0.0217743,0.0437622,0.0256195,0.017334,0.0273743,0.0470428,0.0458221,0.0281219,-0.0300293,-0.022522,0.0156708,-0.0181732,-0.0482941,-0.0150604,-0.019165,-0.00764465,0.128021,0.0475769,0.14621,-0.0526886,0.0336304,-0.0654297,0.0234833,0.0447845,-0.122574,0.0554352,0.02771,-0.000595093,0.0136719,0.00863647,-0.0269165,0.00950623,0.0249176,-0.0117798,0.0480194,-0.0494995,0.00881958,0.057312,0.0499725,0.0334473,0.036026,0.0489655,0.0330353,-0.00390625,-0.00640869,-0.0184937,0.00660706,-0.01651,-0.0441895,0.0560608,-0.0189056,0.0347137,0.0256958,-0.0357971,0.0460205,0.0514374,0.0154266,0.0444183,-0.0229492,-0.0677185,-0.200699,-0.107895,-0.0874786,-0.0168152,-0.0252686,-0.0468903,-0.0123901,-0.0118256,-0.0826874,-0.0910187,-0.00326538,0.0565491,-0.00346375,-0.0167999,-0.00941467,-0.0676117,0.0325623,-0.0280609,0.0836945,0.00605774,-0.0162201,-0.00827026,0.0606079,-0.0414276,0.0668945,0.0301666,0.0483856,0.0404816,0.0183411,0.0122986,0.00384521,-0.00222778,-0.0438995,0.00698853,-0.0456543,0.0331879,-0.015564,-0.013855,0.0803223,-0.00431824,0.204849,-0.0496216,0.0900879,-0.0101471,-0.00778198,-0.0035553,0.0282593,0.0300903,-0.144272,-0.0599823,-0.0755615,0.1082,0.0426788,0.0483704,-0.0188293,0.0733185,-0.0345459,-0.0547028,-0.0882721,-0.0450287,-0.0175781,-0.0764008,-0.067276,-0.082016,-0.0880127,-0.100479,0.0775452,0.0518341,0.0177307,-0.00221252,0.0870819,-0.0573883,0.107681,0.00178528,0.0470734,0.0451202,0.0113525,-0.0128021,-0.00834656,-0.00511169,-0.008255,-0.0498505,-0.0895386,-0.0164795,-0.0205994,0.00524902,0.0102234,-0.0708923,0.0125885,-0.0135651,-0.0202789,-0.0492249,-0.000213623,-0.101578,-0.0151825,-0.0207825,0.0144501,0.0280762,-0.0671082,0.0278931,-0.0122223,0.0346375,0.0221558,-0.0189972,-0.0913391,-0.0193176,0.0212402,0.0657196,-0.0215607,0.0601044,0.0534058,0.0773621,0.0576019,0.0388489,0.0312042,0.0153351,-0.052948,-0.000900269,-0.0427551,0.0149994,-0.0705566,0.0166779,-0.0119171,-0.0136261,-0.0334473,-0.00149536,-0.015152,0.009552,-0.0159912,-0.0684357,-0.0488586,0.0103607,0.00431824,0.046814,0.0269928,0.0214233,-0.0258942,-0.0207825,0.0722504,-0.00553894,0.0153503,-0.0288849,0.0690308,0.000198364,-0.0171814,0.0839844,0.0180206,0.0639496,-0.0256348,0.0261688,0.0235138,-0.120255,-0.00617981,0.0135803,0.00961304,0.0112,0.0879364,0.024826,0.0419464,-0.0355682,-0.000518799,0.0600891,0.0215149,0.0992279,0.0529175,0.0291595,-0.0665283,0.0722046,-0.0100098,-0.0158844,-0.0375824,-0.053894,0.016098,-0.0366211,0.051651,0.0419159,0.0307922,0.0145416,0.0243378,0.0350342,0.0491943,0.0373383,-0.0224762,0.0530701,0.0574646,-0.0567017,-0.0530853,-0.00292969,0.0150146,0.0270081,-0.0160522,-0.0223694,-0.0394287,-0.0390625,-0.0412445,0.0195007,0.0312042,-0.0609589,-0.00714111,0.0339355,0.121216,0.0513,-0.0186157,-0.0342865,-0.004776,0.0921326,-0.0149994,-0.100357,-0.0241089,0.00769043,-0.0870209,0.00621033,0.0101471,-0.0343323,0.0492859,0.0532532,0.00154114,0.0171509,-0.0083313,0.098175,-0.0826416,-0.0143585,0.00349426,-0.0575104,-0.0776367,-0.0338593,0.00567627,0.00535583,0.0346069,-0.13298,0.0648956,-0.0344086,0.0314484,0.116333,0.0233612,-0.0195007,-0.0334625,0.0300446,-0.0155029,0.00958252,0.0159149,0.0524292,-0.0759888,0.0390015,0.0312042,0.0828857,-0.00367737,0.0120544,-0.050415,-0.000473022,0.143875,0.0359955,-0.0678711,0.133118,-0.0295563,-0.0232086,0.0370026,0.0366821,0.0483551,0.0380707,0.0118103,0.0323944,-0.0512695,0.0869598,-0.0496521,-0.0835114,-0.0190887,0.0158234,0.0139313,0.0250244,0.00976563,0.00382996,0.0429993,-0.00254822,-0.0209503,-0.0472565,0.02742,-0.0188751,-0.00874329,0.0271759,-0.0355072,-0.0180969,-0.0102386,-0.0307465,0.0228729,-0.00215149,-0.00514221,0.0375214,0.0523376,-0.0576019,0.115784,-0.0116425,-0.00239563,0.0500183,-0.0549469,0.0276794,-0.00244141,0.0307465,0.0700073,-0.0162354,-0.0129089,0.0231476,0.0114136,-0.00942993,0.0379486,0.00613403,0.0779114,-0.0800171,-0.0652924,0.0670013,-0.0543213,-0.0357666,0.00442505,-0.00326538,-0.0710907,0.0010376,0.00640869,-0.0773773,-0.0190582,0.0405731,0.0273285,-0.0981445,0.118515,0.00648499,-0.0587158,0.00482178,0.000701904,0.0330505,0.0511169,0.00645447,-0.0121002,0.0460968,-0.0559692,0.0366974,0.0217743,0.056076,0.0281677,0.000747681,0.0127869,0.0124512,-0.00869751,-0.0159607,0.00762939,0.0925293,0.039978,-0.00546265,0.0312958,0.122635,-0.0576477,0.00619507,0.0254974,-0.0797577,0.00862122,-0.0429993,0.0173798,-0.0360413,-0.0778809,-0.00987244,-0.0544586,0.057373,-0.0456085,0.0205994,0.0188904,-0.0686035,-0.0298004,0.0222015,0.0772095,0.0168915,-0.0826111,-0.00558472,-0.140808,0.0521393,0.0281067,-0.0550995,0.0078125,0.0332184,-0.0296021,-0.00517273,0.058609,0.0547028,0.0161438,-0.0174713,-0.0149994,0.0320282,-0.000747681,-0.0165253,-0.014328,0.0875397,0.0475769,0.0266571,0.0103607,-0.0129395,-0.0249023,0.0126038,-0.0340729,-0.0351715,0.0635681,0.0596771,-0.0260468,0.0238647,0.0609741,0.148056,0.0508575,0.0431366,-0.0392456,0.0117493,-0.00634766,-0.0796814,-0.0296021,0.0458069,0.0470734,-0.010788,-0.0132904,-0.028717,0.0504608,0.0661011,0.026535,0.00869751,-0.0287628,-0.00857544,-0.0324097,0.0108337,-0.0292358,0.0371246,-0.0227509,0.00544739,0.0328674,-0.0273895,-0.047348,0.0246582,0.0236664,0.00578308,-0.0196228,0.0344543,-0.00190735,-0.00662231,0.00469971,-0.0180206,0.0166016,0.0188599,0.0164032,-0.071106,0.0193481,-0.0158234,0.00697327,0.0973358,-0.0107574,0.0192719,-0.00836182,0.0298309,0.000396729,0.0358582,-0.0134583,-0.0581818,0.00466919,-0.00846863,-0.0150909,0.0181885,0.0170593,0.0281525,-0.001297,-0.0147705,-0.0516205,-0.0944214,-0.0335846,0.0282898,-0.00588989,-0.0192871,-0.0337524,0.0332947,0.0398102,-0.0106201,-0.0083313,0.036377,-0.00363159,0.000518799,-0.00108337,0.00350952,0.00520325,-0.00357056,0.00254822,0.0446777,-0.0120239,-0.0229492,0.0154114,-0.013504,0.0258636,0.0265198,-0.015976,-0.0365906,-0.017746,-0.120544,0.0212402,-0.00614929,0.0570526,0.0786591,0.0354462,0.0499268,0.02005,-0.053421,0.0795135,0.038208,-0.00935364,0.0552368,0.00227356,0.00892639,-0.0428772,-0.0118408,0.10553,0.143112,0.100479,-0.0225677,-0.0473633,-0.0326843,0.122543,-0.00588989,0.00796509,-0.00509644,-0.118286,-0.0045929,0.0215607,0.0601349,-0.0176239,0.0542755,0.00354004,0.00794983,-0.0665894,0.0292206,-0.016098,0.0119324,-0.00941467,-0.0989838,0.0678711,-0.0291901,-0.00517273,0.00645447,0.0289001,-0.0509033,-0.0223846,0.0157013,0.0604858,-0.077774,0.0308685,0.00215149,0.0329895,0.00631714,-0.0896912,0.0643158,-0.0514221,0.00842285,-0.00965881,0.00566101,0.230469,0.0504761,0.0388794,0.0367889,-0.00900269,-0.144073,-0.0456238,-0.0617371,0.0357208,-0.02948,0.0131531,-0.0111237,0.118225,0.109024,0.0820923,-0.0254364,0.0441132,-0.024353,0.145737,0.028595,0.0253143,0.0491943,0.0345001,0.0316315,0.00488281,0.00767517,0.0428009,-0.068512,-0.0324707,-0.0107574,0.0584412,0.0240326,0.0226746,-0.149948,0.0218048,-0.0104675,-0.00830078,-0.225632,0.0349579,-0.0580139,-0.0227051,-0.00419617,0.00769043,-0.0259552,0.0213623,0.0162811,-0.0406799,0.119705,-0.0316772,-0.000930786,-0.0713806,-7.62939e-05,0.00230408,0.0288239,0.0610504,-0.0153503,-0.0155182,0.0210571,-0.0263214,0.036377,-0.0219879,0.0366669,-0.0301971,-0.0471649,-0.0167389,-0.0328827,0.026001,0.0553131,0.0343018,0.0227203,0.0302887,0.0348816,0.0475769,0.0505371,0.015686,-0.00050354,0.0485535,0.0314636,0.0424805,-0.10675,-0.0577698,0.00694275,0.0121155,-0.00437927,0.0158386,0.0206299,-0.0447845,-0.00682068,-0.0148468,0.0140076,0.0341492,-0.00933838,-0.0540466,-0.0106659,0.0147705,0.0127411,0.0030365,0.0406647,0.12674,-0.00424194,-0.106552,0.0969543,-0.0346222,0.00694275,-0.00688171,0.047821,-0.0238495,0.0318604,-0.0113831,0.0179291,0.027832,0.0681763,0.00497437,0.0316925,0.037262,0.0105896,0.0018158,-0.0218201,0.0411224,-0.0187988,-0.00354004,0.0265198,-0.145096,-0.116257,-0.0123749,-0.0145264,0.0531311,0.0296021,-0.00105286,-0.00579834,-0.0230408,0.0900879,-0.0221252,0.0214844,0.0140686,0.0422058,-0.0187378,0.0149384,0.046936,0.0117645,0.0138092,0.0197601,-0.0124512,0.0860443,0.0323486,0.00679016,-0.070282,0.00144958,-0.0365753,0.0188141,-0.0259399,0.031601,-0.0598907,-0.0517883,0.0426788,0.00256348,-0.0529633,0.0175629,0.0128479,-0.0087738,0.0340881,-0.0354156,0.00878906,0.00869751,-0.0650787,-0.0521698,-0.0178375,0.0141602,-0.00961304,-0.00683594,-0.0150757,0.068985,0.122986,-0.00753784,0.0187683,0.0731812,-0.0227661,0.0114746,0.00154114,0.0296478,-0.000305176,-0.0241699,-0.0109863,-0.0471497,0.00498962,0.0434113,-0.0835571,-0.0274506,0.014389,0.0143433,0.0538025,0.0711823,0.0432281,0.0824432,-0.030777,0.0712585,0.0816193,0.032547,0.0363007,0.0462341,0.0348511,0.0487671,0.0132141,-0.0370026,-0.00813293,-0.0042572,0.0302277,0.0245819,0.0657806,-0.00370789,-0.0124969,-0.0516815,0.0487823,0.105621,0.0118561,-0.00732422,-0.0280609,0.0633698,0.0214539,-0.0299988,-0.00662231,-0.022934,-0.00265503,0.0297852,-0.0402985,0.0335388,-0.0177155,0.044754,0.0450439,-0.00646973,0.0332489,0,-0.0136719,-0.00553894,0.00163269,-0.0518799,0.0290833,-0.0552673,0.0105896,-0.0103302,0.0125427,-0.114182,-0.0526123,0.0059967,-0.0032959,-0.0106812,0.092514,-0.0452118,0.0880585,0.0642395,0.0985107,0.0265198,0.0431519,0.0241852,0.0262299,0.00691223,0.0725098,0.022583,0.0183868,0.0348206,-0.0502472,-0.015976,0.0173187,-0.00952148,0.0537262,0.0299835,0.0441895,-0.0273285,-0.00926208,0.00811768,-0.0457306,-0.000320435,-0.0291443,0.0334778,-0.0167694,0.0164185,0.0908661,-0.0401459,0.038208,0.0351868,-0.0389099,-0.0245514,0.000747681,0.00561523,-0.0422058,-0.00765991,0.00361633,0.00123596,0.0133667,-0.0160522,-0.0308685,0.0105438,0.0137634,0.00532532,-0.030899,-0.0100098,-0.0330353,-0.0393524,-0.0352325,0.00592041,-0.0742645,0.010437,0.0405579,-0.0345764,-0.00952148,-0.00349426,-0.0105438,0.0758057,-0.0212402,0.00627136,0.0757446,-0.0191956,-0.056427,0.0879211,0.00917053,-0.0511169,0.0105743,-0.000518799,-0.0183411,-0.0294189,0.0223541,0.0326843,-0.0224152,0.0405426,-0.00846863,-0.0196381,0.0403748,0.0331268,0.0385132,0.160889,0.165771,0.0199585,-0.0481873,-0.0127716,-0.0398407,-0.0205383,0.04776,-0.0039978,0.000930786,0.0268555,-0.0181732,0.0030365,-0.00170898,-0.055191,-0.101685,0.00262451,0.0133057,0.00540161,-0.0114288,0.0437317,-0.00906372,-0.0172729,0.0739899,0.000289917,-0.0204315,0.0432281,-0.107239,0.0426178,0.0128632,-0.00224304,-0.0157623,-0.00665283,-0.011322,-0.110107,-0.0299377,-0.0305634,-0.0229492,0.00172424,-0.0172729,0.0245361,-6.10352e-05,-0.02742,0.0380554,-0.0142365,0.058136,-0.0135498,0.00808716,0.111435,-0.0325012,0.0222931,-0.0407867,0.0384521,-0.0310822,-0.0148773,-0.0287476,-0.00622559,0.00088501,0.0195465,-0.0592499,0.0297699,-0.00765991,0.02771,0.00447083,0.0186157,-0.0823517,0.0559692,0.0626373,0.0110321,-0.0201111,-0.00991821,0.0210419,0.123138,0.0799408,0.0241089,0.00753784,0.0454407,0.0473785,-0.0241394,-0.00114441,-0.00993347,-0.0192413,-0.0688934,-0.0072937,0.00550842,0.0193939,-0.0370483,0.0805817,0.0228729,-0.0126495,-0.00515747,-0.00523376,-0.0297852,0.0173492,-0.0609131,-0.0453186,-0.0144958,-0.0770416,-0.0403442,-0.0309143,0.00413513,-0.021637,-0.0418091,